Language model created by QuickLM on Mon Oct  3 03:34:12 EDT 2022
Copyright (c) 1996-2010 Carnegie Mellon University and Alexander I. Rudnicky

The model is in standard ARPA format, designed by Doug Paul while he was at MITRE.

The code that was used to produce this language model is available in Open Source.
Please visit http://www.speech.cs.cmu.edu/tools/ for more information

The (fixed) discount mass is 0.5. The backoffs are computed using the ratio method.
This model based on a corpus of 2 sentences and 8 words

\data\
ngram 1=8
ngram 2=8
ngram 3=6

\1-grams:
-1.0000 </s> -0.3010
-1.0000 <s> -0.2553
-1.3010 GOOGLE -0.2788
-1.3010 NAME -0.2553
-1.3010 OPEN -0.2788
-1.3010 WHAT -0.2788
-1.3010 YOUR -0.2788
-1.3010 YOUTUBE -0.2553

\2-grams:
-0.6021 <s> OPEN 0.0000
-0.6021 <s> WHAT 0.0000
-0.3010 GOOGLE YOUTUBE 0.0000
-0.3010 NAME </s> -0.3010
-0.3010 OPEN GOOGLE 0.0000
-0.3010 WHAT YOUR 0.0000
-0.3010 YOUR NAME 0.0000
-0.3010 YOUTUBE </s> -0.3010

\3-grams:
-0.3010 <s> OPEN GOOGLE
-0.3010 <s> WHAT YOUR
-0.3010 GOOGLE YOUTUBE </s>
-0.3010 OPEN GOOGLE YOUTUBE
-0.3010 WHAT YOUR NAME
-0.3010 YOUR NAME </s>

\end\